digraph Tree {
node [shape=box, fontname="helvetica"] ;
edge [fontname="helvetica"] ;
0 [label="x[0] <= 99.5\nsquared_error = 24901.634\nsamples = 678711\nvalue = 6.056"] ;
1 [label="x[0] <= 68.5\nsquared_error = 837.997\nsamples = 384541\nvalue = 2.077"] ;
0 -> 1 [labeldistance=2.5, labelangle=45, headlabel="True"] ;
2 [label="x[3] <= 114.5\nsquared_error = 404.503\nsamples = 259168\nvalue = 0.934"] ;
1 -> 2 ;
3 [label="x[0] <= 12.5\nsquared_error = 2.674\nsamples = 82218\nvalue = 0.043"] ;
2 -> 3 ;
4 [label="x[3] <= 23.5\nsquared_error = 18.372\nsamples = 11021\nvalue = 0.206"] ;
3 -> 4 ;
5 [label="x[3] <= 22.0\nsquared_error = 122.343\nsamples = 1612\nvalue = 1.157"] ;
4 -> 5 ;
6 [label="x[0] <= 11.5\nsquared_error = 0.034\nsamples = 1479\nvalue = 0.007"] ;
5 -> 6 ;
7 [label="x[3] <= 19.5\nsquared_error = 0.019\nsamples = 1286\nvalue = 0.004"] ;
6 -> 7 ;
8 [label="squared_error = 0.0\nsamples = 1049\nvalue = 0.0"] ;
7 -> 8 ;
9 [label="squared_error = 0.105\nsamples = 237\nvalue = 0.021"] ;
7 -> 9 ;
10 [label="x[2] <= 12.5\nsquared_error = 0.129\nsamples = 193\nvalue = 0.026"] ;
6 -> 10 ;
11 [label="squared_error = 0.0\nsamples = 142\nvalue = 0.0"] ;
10 -> 11 ;
12 [label="squared_error = 0.481\nsamples = 51\nvalue = 0.098"] ;
10 -> 12 ;
13 [label="x[0] <= 10.0\nsquared_error = 1304.155\nsamples = 133\nvalue = 13.947"] ;
5 -> 13 ;
14 [label="x[0] <= 7.0\nsquared_error = 0.735\nsamples = 99\nvalue = 0.152"] ;
13 -> 14 ;
15 [label="squared_error = 0.0\nsamples = 68\nvalue = 0.0"] ;
14 -> 15 ;
16 [label="squared_error = 2.185\nsamples = 31\nvalue = 0.484"] ;
14 -> 16 ;
17 [label="x[0] <= 11.5\nsquared_error = 2931.574\nsamples = 34\nvalue = 54.118"] ;
13 -> 17 ;
18 [label="squared_error = 1520.139\nsamples = 18\nvalue = 97.5"] ;
17 -> 18 ;
19 [label="squared_error = 20.215\nsamples = 16\nvalue = 5.312"] ;
17 -> 19 ;
20 [label="x[3] <= 109.5\nsquared_error = 0.378\nsamples = 9409\nvalue = 0.043"] ;
4 -> 20 ;
21 [label="x[3] <= 108.0\nsquared_error = 0.02\nsamples = 8868\nvalue = 0.004"] ;
20 -> 21 ;
22 [label="x[3] <= 63.5\nsquared_error = 0.014\nsamples = 8735\nvalue = 0.003"] ;
21 -> 22 ;
23 [label="squared_error = 0.03\nsamples = 4095\nvalue = 0.006"] ;
22 -> 23 ;
24 [label="squared_error = 0.0\nsamples = 4640\nvalue = 0.0"] ;
22 -> 24 ;
25 [label="x[0] <= 7.0\nsquared_error = 0.37\nsamples = 133\nvalue = 0.075"] ;
21 -> 25 ;
26 [label="squared_error = 0.735\nsamples = 66\nvalue = 0.152"] ;
25 -> 26 ;
27 [label="squared_error = 0.0\nsamples = 67\nvalue = 0.0"] ;
25 -> 27 ;
28 [label="x[0] <= 11.5\nsquared_error = 5.817\nsamples = 541\nvalue = 0.684"] ;
20 -> 28 ;
29 [label="x[0] <= 5.5\nsquared_error = 1.123\nsamples = 471\nvalue = 0.212"] ;
28 -> 29 ;
30 [label="squared_error = 0.0\nsamples = 207\nvalue = 0.0"] ;
29 -> 30 ;
31 [label="squared_error = 1.94\nsamples = 264\nvalue = 0.379"] ;
29 -> 31 ;
32 [label="x[2] <= 13.5\nsquared_error = 25.837\nsamples = 70\nvalue = 3.857"] ;
28 -> 32 ;
33 [label="squared_error = 27.708\nsamples = 59\nvalue = 4.492"] ;
32 -> 33 ;
34 [label="squared_error = 2.066\nsamples = 11\nvalue = 0.455"] ;
32 -> 34 ;
35 [label="x[3] <= 113.0\nsquared_error = 0.239\nsamples = 71197\nvalue = 0.018"] ;
3 -> 35 ;
36 [label="x[3] <= 32.5\nsquared_error = 0.141\nsamples = 70340\nvalue = 0.015"] ;
35 -> 36 ;
37 [label="x[0] <= 67.5\nsquared_error = 0.363\nsamples = 16212\nvalue = 0.037"] ;
36 -> 37 ;
38 [label="x[0] <= 23.5\nsquared_error = 0.32\nsamples = 15910\nvalue = 0.031"] ;
37 -> 38 ;
39 [label="squared_error = 1.536\nsamples = 2805\nvalue = 0.121"] ;
38 -> 39 ;
40 [label="squared_error = 0.057\nsamples = 13105\nvalue = 0.011"] ;
38 -> 40 ;
41 [label="x[3] <= 31.5\nsquared_error = 2.516\nsamples = 302\nvalue = 0.364"] ;
37 -> 41 ;
42 [label="squared_error = 0.515\nsamples = 285\nvalue = 0.105"] ;
41 -> 42 ;
43 [label="squared_error = 16.09\nsamples = 17\nvalue = 4.706"] ;
41 -> 43 ;
44 [label="x[3] <= 110.5\nsquared_error = 0.074\nsamples = 54128\nvalue = 0.008"] ;
36 -> 44 ;
45 [label="x[0] <= 37.5\nsquared_error = 0.056\nsamples = 52346\nvalue = 0.006"] ;
44 -> 45 ;
46 [label="squared_error = 0.121\nsamples = 22102\nvalue = 0.012"] ;
45 -> 46 ;
47 [label="squared_error = 0.008\nsamples = 30244\nvalue = 0.002"] ;
45 -> 47 ;
48 [label="x[3] <= 111.5\nsquared_error = 0.598\nsamples = 1782\nvalue = 0.076"] ;
44 -> 48 ;
49 [label="squared_error = 1.189\nsamples = 887\nvalue = 0.152"] ;
48 -> 49 ;
50 [label="squared_error = 0.0\nsamples = 895\nvalue = 0.0"] ;
48 -> 50 ;
51 [label="x[0] <= 37.5\nsquared_error = 8.218\nsamples = 857\nvalue = 0.309"] ;
35 -> 51 ;
52 [label="x[0] <= 36.5\nsquared_error = 18.794\nsamples = 361\nvalue = 0.623"] ;
51 -> 52 ;
53 [label="x[0] <= 22.5\nsquared_error = 0.216\nsamples = 345\nvalue = 0.043"] ;
52 -> 53 ;
54 [label="squared_error = 0.559\nsamples = 131\nvalue = 0.115"] ;
53 -> 54 ;
55 [label="squared_error = 0.0\nsamples = 214\nvalue = 0.0"] ;
53 -> 55 ;
56 [label="x[2] <= 9.0\nsquared_error = 255.859\nsamples = 16\nvalue = 13.125"] ;
52 -> 56 ;
57 [label="squared_error = 4.688\nsamples = 8\nvalue = 1.25"] ;
56 -> 57 ;
58 [label="squared_error = 225.0\nsamples = 8\nvalue = 25.0"] ;
56 -> 58 ;
59 [label="x[0] <= 56.0\nsquared_error = 0.397\nsamples = 496\nvalue = 0.081"] ;
51 -> 59 ;
60 [label="squared_error = 0.0\nsamples = 293\nvalue = 0.0"] ;
59 -> 60 ;
61 [label="x[0] <= 57.5\nsquared_error = 0.946\nsamples = 203\nvalue = 0.197"] ;
59 -> 61 ;
62 [label="squared_error = 5.709\nsamples = 17\nvalue = 1.765"] ;
61 -> 62 ;
63 [label="squared_error = 0.266\nsamples = 186\nvalue = 0.054"] ;
61 -> 63 ;
64 [label="x[3] <= 116.0\nsquared_error = 590.669\nsamples = 176950\nvalue = 1.347"] ;
2 -> 64 ;
65 [label="x[0] <= 37.5\nsquared_error = 7674.195\nsamples = 985\nvalue = 15.792"] ;
64 -> 65 ;
66 [label="x[0] <= 36.5\nsquared_error = 15101.142\nsamples = 488\nvalue = 28.648"] ;
65 -> 66 ;
67 [label="x[0] <= 12.5\nsquared_error = 2534.565\nsamples = 474\nvalue = 14.008"] ;
66 -> 67 ;
68 [label="x[0] <= 11.5\nsquared_error = 7932.249\nsamples = 130\nvalue = 38.462"] ;
67 -> 68 ;
69 [label="squared_error = 511.323\nsamples = 115\nvalue = 11.739"] ;
68 -> 69 ;
70 [label="squared_error = 17378.889\nsamples = 15\nvalue = 243.333"] ;
68 -> 70 ;
71 [label="x[0] <= 26.0\nsquared_error = 183.376\nsamples = 344\nvalue = 4.767"] ;
67 -> 71 ;
72 [label="squared_error = 305.884\nsamples = 184\nvalue = 8.913"] ;
71 -> 72 ;
73 [label="squared_error = 0.0\nsamples = 160\nvalue = 0.0"] ;
71 -> 73 ;
74 [label="x[2] <= 7.5\nsquared_error = 187656.633\nsamples = 14\nvalue = 524.286"] ;
66 -> 74 ;
75 [label="x[2] <= 3.5\nsquared_error = 2028.571\nsamples = 7\nvalue = 150.0"] ;
74 -> 75 ;
76 [label="squared_error = 306.25\nsamples = 2\nvalue = 202.5"] ;
75 -> 76 ;
77 [label="squared_error = 1174.0\nsamples = 5\nvalue = 129.0"] ;
75 -> 77 ;
78 [label="x[2] <= 14.0\nsquared_error = 93105.102\nsamples = 7\nvalue = 898.571"] ;
74 -> 78 ;
79 [label="squared_error = 86986.806\nsamples = 6\nvalue = 954.167"] ;
78 -> 79 ;
80 [label="squared_error = 0.0\nsamples = 1\nvalue = 565.0"] ;
78 -> 80 ;
81 [label="x[0] <= 56.0\nsquared_error = 60.128\nsamples = 497\nvalue = 3.169"] ;
65 -> 81 ;
82 [label="x[0] <= 38.5\nsquared_error = 6.566\nsamples = 304\nvalue = 0.51"] ;
81 -> 82 ;
83 [label="x[2] <= 9.0\nsquared_error = 22.222\nsamples = 15\nvalue = 3.333"] ;
82 -> 83 ;
84 [label="squared_error = 3.472\nsamples = 6\nvalue = 0.833"] ;
83 -> 84 ;
85 [label="squared_error = 27.778\nsamples = 9\nvalue = 5.0"] ;
83 -> 85 ;
86 [label="x[0] <= 49.5\nsquared_error = 5.318\nsamples = 289\nvalue = 0.363"] ;
82 -> 86 ;
87 [label="squared_error = 0.265\nsamples = 187\nvalue = 0.053"] ;
86 -> 87 ;
88 [label="squared_error = 14.084\nsamples = 102\nvalue = 0.931"] ;
86 -> 88 ;
89 [label="x[0] <= 59.5\nsquared_error = 115.815\nsamples = 193\nvalue = 7.358"] ;
81 -> 89 ;
90 [label="x[0] <= 57.5\nsquared_error = 194.04\nsamples = 50\nvalue = 18.6"] ;
89 -> 90 ;
91 [label="squared_error = 201.188\nsamples = 20\nvalue = 25.25"] ;
90 -> 91 ;
92 [label="squared_error = 140.139\nsamples = 30\nvalue = 14.167"] ;
90 -> 92 ;
93 [label="x[0] <= 67.5\nsquared_error = 28.818\nsamples = 143\nvalue = 3.427"] ;
89 -> 93 ;
94 [label="squared_error = 13.611\nsamples = 129\nvalue = 2.442"] ;
93 -> 94 ;
95 [label="squared_error = 77.679\nsamples = 14\nvalue = 12.5"] ;
93 -> 95 ;
96 [label="x[2] <= 7.5\nsquared_error = 549.843\nsamples = 175965\nvalue = 1.266"] ;
64 -> 96 ;
97 [label="x[0] <= 37.5\nsquared_error = 24.504\nsamples = 64102\nvalue = 0.328"] ;
96 -> 97 ;
98 [label="x[0] <= 36.5\nsquared_error = 44.055\nsamples = 32056\nvalue = 0.479"] ;
97 -> 98 ;
99 [label="x[0] <= 12.5\nsquared_error = 5.34\nsamples = 30976\nvalue = 0.205"] ;
98 -> 99 ;
100 [label="squared_error = 16.713\nsamples = 8567\nvalue = 0.531"] ;
99 -> 100 ;
101 [label="squared_error = 0.936\nsamples = 22409\nvalue = 0.081"] ;
99 -> 101 ;
102 [label="x[3] <= 199.5\nsquared_error = 1090.756\nsamples = 1080\nvalue = 8.324"] ;
98 -> 102 ;
103 [label="squared_error = 159.442\nsamples = 428\nvalue = 3.937"] ;
102 -> 103 ;
104 [label="squared_error = 1681.181\nsamples = 652\nvalue = 11.204"] ;
102 -> 104 ;
105 [label="x[0] <= 56.0\nsquared_error = 4.902\nsamples = 32046\nvalue = 0.177"] ;
97 -> 105 ;
106 [label="x[0] <= 38.5\nsquared_error = 0.021\nsamples = 19119\nvalue = 0.004"] ;
105 -> 106 ;
107 [label="squared_error = 0.181\nsamples = 1094\nvalue = 0.037"] ;
106 -> 107 ;
108 [label="squared_error = 0.011\nsamples = 18025\nvalue = 0.002"] ;
106 -> 108 ;
109 [label="x[0] <= 57.5\nsquared_error = 12.012\nsamples = 12927\nvalue = 0.433"] ;
105 -> 109 ;
110 [label="squared_error = 69.791\nsamples = 1121\nvalue = 2.11"] ;
109 -> 110 ;
111 [label="squared_error = 6.233\nsamples = 11806\nvalue = 0.274"] ;
109 -> 111 ;
112 [label="x[0] <= 36.5\nsquared_error = 850.089\nsamples = 111863\nvalue = 1.804"] ;
96 -> 112 ;
113 [label="x[0] <= 12.5\nsquared_error = 95.216\nsamples = 54150\nvalue = 0.811"] ;
112 -> 113 ;
114 [label="x[0] <= 11.5\nsquared_error = 312.539\nsamples = 14951\nvalue = 2.151"] ;
113 -> 114 ;
115 [label="squared_error = 50.005\nsamples = 13080\nvalue = 0.822"] ;
114 -> 115 ;
116 [label="squared_error = 2049.248\nsamples = 1871\nvalue = 11.44"] ;
114 -> 116 ;
117 [label="x[0] <= 26.0\nsquared_error = 11.381\nsamples = 39199\nvalue = 0.3"] ;
113 -> 117 ;
118 [label="squared_error = 21.473\nsamples = 20594\nvalue = 0.566"] ;
117 -> 118 ;
119 [label="squared_error = 0.047\nsamples = 18605\nvalue = 0.007"] ;
117 -> 119 ;
120 [label="x[0] <= 37.5\nsquared_error = 1556.566\nsamples = 57713\nvalue = 2.736"] ;
112 -> 120 ;
121 [label="x[3] <= 255.5\nsquared_error = 42486.077\nsamples = 1884\nvalue = 58.506"] ;
120 -> 121 ;
122 [label="squared_error = 45087.511\nsamples = 1236\nvalue = 71.715"] ;
121 -> 122 ;
123 [label="squared_error = 36556.442\nsamples = 648\nvalue = 33.31"] ;
121 -> 123 ;
124 [label="x[0] <= 56.0\nsquared_error = 66.862\nsamples = 55829\nvalue = 0.854"] ;
120 -> 124 ;
125 [label="squared_error = 0.845\nsamples = 33444\nvalue = 0.052"] ;
124 -> 125 ;
126 [label="squared_error = 163.099\nsamples = 22385\nvalue = 2.052"] ;
124 -> 126 ;
127 [label="x[0] <= 71.0\nsquared_error = 1725.819\nsamples = 125373\nvalue = 4.44"] ;
1 -> 127 ;
128 [label="x[0] <= 69.5\nsquared_error = 6350.383\nsamples = 8679\nvalue = 15.053"] ;
127 -> 128 ;
129 [label="x[3] <= 113.0\nsquared_error = 433.719\nsamples = 4361\nvalue = 4.799"] ;
128 -> 129 ;
130 [label="x[3] <= 108.0\nsquared_error = 1.036\nsamples = 1364\nvalue = 0.092"] ;
129 -> 130 ;
131 [label="squared_error = 0.0\nsamples = 1299\nvalue = 0.0"] ;
130 -> 131 ;
132 [label="x[3] <= 109.5\nsquared_error = 18.225\nsamples = 65\nvalue = 1.923"] ;
130 -> 132 ;
133 [label="x[2] <= 9.0\nsquared_error = 34.889\nsamples = 15\nvalue = 4.667"] ;
132 -> 133 ;
134 [label="squared_error = 6.25\nsamples = 8\nvalue = 2.5"] ;
133 -> 134 ;
135 [label="squared_error = 56.122\nsamples = 7\nvalue = 7.143"] ;
133 -> 135 ;
136 [label="x[3] <= 111.5\nsquared_error = 10.29\nsamples = 50\nvalue = 1.1"] ;
132 -> 136 ;
137 [label="squared_error = 15.806\nsamples = 30\nvalue = 1.833"] ;
136 -> 137 ;
138 [label="squared_error = 0.0\nsamples = 20\nvalue = 0.0"] ;
136 -> 138 ;
139 [label="x[2] <= 9.0\nsquared_error = 615.965\nsamples = 2997\nvalue = 6.942"] ;
129 -> 139 ;
140 [label="x[3] <= 116.0\nsquared_error = 89.637\nsamples = 1377\nvalue = 2.858"] ;
139 -> 140 ;
141 [label="x[3] <= 114.5\nsquared_error = 367.857\nsamples = 14\nvalue = 20.0"] ;
140 -> 141 ;
142 [label="squared_error = 6.122\nsamples = 7\nvalue = 2.857"] ;
141 -> 142 ;
143 [label="squared_error = 141.837\nsamples = 7\nvalue = 37.143"] ;
141 -> 143 ;
144 [label="x[2] <= 7.5\nsquared_error = 83.73\nsamples = 1363\nvalue = 2.682"] ;
140 -> 144 ;
145 [label="squared_error = 43.04\nsamples = 1083\nvalue = 2.064"] ;
144 -> 145 ;
146 [label="squared_error = 233.923\nsamples = 280\nvalue = 5.071"] ;
144 -> 146 ;
147 [label="x[3] <= 251.5\nsquared_error = 1037.113\nsamples = 1620\nvalue = 10.414"] ;
139 -> 147 ;
148 [label="x[3] <= 247.5\nsquared_error = 1380.347\nsamples = 1040\nvalue = 13.591"] ;
147 -> 148 ;
149 [label="squared_error = 891.498\nsamples = 1005\nvalue = 10.93"] ;
148 -> 149 ;
150 [label="squared_error = 9375.714\nsamples = 35\nvalue = 90.0"] ;
148 -> 150 ;
151 [label="x[3] <= 293.5\nsquared_error = 371.083\nsamples = 580\nvalue = 4.716"] ;
147 -> 151 ;
152 [label="squared_error = 12.52\nsamples = 335\nvalue = 0.955"] ;
151 -> 152 ;
153 [label="squared_error = 815.592\nsamples = 245\nvalue = 9.857"] ;
151 -> 153 ;
154 [label="x[3] <= 114.5\nsquared_error = 12112.541\nsamples = 4318\nvalue = 25.409"] ;
128 -> 154 ;
155 [label="x[3] <= 110.5\nsquared_error = 39.574\nsamples = 1367\nvalue = 0.717"] ;
154 -> 155 ;
156 [label="x[3] <= 109.5\nsquared_error = 0.357\nsamples = 1317\nvalue = 0.065"] ;
155 -> 156 ;
157 [label="x[3] <= 104.0\nsquared_error = 0.228\nsamples = 1304\nvalue = 0.046"] ;
156 -> 157 ;
158 [label="squared_error = 0.101\nsamples = 1232\nvalue = 0.02"] ;
157 -> 158 ;
159 [label="squared_error = 2.194\nsamples = 72\nvalue = 0.486"] ;
157 -> 159 ;
160 [label="x[2] <= 9.0\nsquared_error = 9.763\nsamples = 13\nvalue = 1.923"] ;
156 -> 160 ;
161 [label="squared_error = 3.061\nsamples = 7\nvalue = 0.714"] ;
160 -> 161 ;
162 [label="squared_error = 13.889\nsamples = 6\nvalue = 3.333"] ;
160 -> 162 ;
163 [label="x[3] <= 111.5\nsquared_error = 766.09\nsamples = 50\nvalue = 17.9"] ;
155 -> 163 ;
164 [label="x[2] <= 12.5\nsquared_error = 962.222\nsamples = 15\nvalue = 48.333"] ;
163 -> 164 ;
165 [label="squared_error = 542.562\nsamples = 11\nvalue = 62.273"] ;
164 -> 165 ;
166 [label="squared_error = 112.5\nsamples = 4\nvalue = 10.0"] ;
164 -> 166 ;
167 [label="x[3] <= 113.0\nsquared_error = 114.98\nsamples = 35\nvalue = 4.857"] ;
163 -> 167 ;
168 [label="squared_error = 0.0\nsamples = 18\nvalue = 0.0"] ;
167 -> 168 ;
169 [label="squared_error = 185.294\nsamples = 17\nvalue = 10.0"] ;
167 -> 169 ;
170 [label="x[3] <= 116.0\nsquared_error = 17291.879\nsamples = 2951\nvalue = 36.847"] ;
154 -> 170 ;
171 [label="x[2] <= 13.5\nsquared_error = 90453.809\nsamples = 16\nvalue = 624.062"] ;
170 -> 171 ;
172 [label="x[2] <= 9.0\nsquared_error = 78230.23\nsamples = 14\nvalue = 679.643"] ;
171 -> 172 ;
173 [label="squared_error = 7854.688\nsamples = 8\nvalue = 488.75"] ;
172 -> 173 ;
174 [label="squared_error = 58695.139\nsamples = 6\nvalue = 934.167"] ;
172 -> 174 ;
175 [label="x[2] <= 14.5\nsquared_error = 3025.0\nsamples = 2\nvalue = 235.0"] ;
171 -> 175 ;
176 [label="squared_error = 0.0\nsamples = 1\nvalue = 290.0"] ;
175 -> 176 ;
177 [label="squared_error = 0.0\nsamples = 1\nvalue = 180.0"] ;
175 -> 177 ;
178 [label="x[2] <= 9.0\nsquared_error = 15003.012\nsamples = 2935\nvalue = 33.646"] ;
170 -> 178 ;
179 [label="x[3] <= 255.5\nsquared_error = 1453.488\nsamples = 1327\nvalue = 10.919"] ;
178 -> 179 ;
180 [label="squared_error = 1576.138\nsamples = 862\nvalue = 14.205"] ;
179 -> 180 ;
181 [label="squared_error = 1169.003\nsamples = 465\nvalue = 4.828"] ;
179 -> 181 ;
182 [label="x[3] <= 255.5\nsquared_error = 25406.769\nsamples = 1608\nvalue = 52.4"] ;
178 -> 182 ;
183 [label="squared_error = 35244.959\nsamples = 1066\nvalue = 70.263"] ;
182 -> 183 ;
184 [label="squared_error = 4195.403\nsamples = 542\nvalue = 17.269"] ;
182 -> 184 ;
185 [label="x[3] <= 110.5\nsquared_error = 1372.872\nsamples = 116694\nvalue = 3.651"] ;
127 -> 185 ;
186 [label="x[3] <= 108.0\nsquared_error = 1.858\nsamples = 35572\nvalue = 0.074"] ;
185 -> 186 ;
187 [label="x[0] <= 96.5\nsquared_error = 1.226\nsamples = 34692\nvalue = 0.053"] ;
186 -> 187 ;
188 [label="x[3] <= 32.5\nsquared_error = 0.336\nsamples = 30832\nvalue = 0.027"] ;
187 -> 188 ;
189 [label="x[3] <= 31.5\nsquared_error = 0.472\nsamples = 7513\nvalue = 0.066"] ;
188 -> 189 ;
190 [label="squared_error = 0.185\nsamples = 7110\nvalue = 0.033"] ;
189 -> 190 ;
191 [label="squared_error = 5.167\nsamples = 403\nvalue = 0.645"] ;
189 -> 191 ;
192 [label="x[0] <= 85.0\nsquared_error = 0.291\nsamples = 23319\nvalue = 0.015"] ;
188 -> 192 ;
193 [label="squared_error = 0.018\nsamples = 12637\nvalue = 0.004"] ;
192 -> 193 ;
194 [label="squared_error = 0.615\nsamples = 10682\nvalue = 0.028"] ;
192 -> 194 ;
195 [label="x[3] <= 32.5\nsquared_error = 8.285\nsamples = 3860\nvalue = 0.264"] ;
187 -> 195 ;
196 [label="x[3] <= 31.5\nsquared_error = 33.405\nsamples = 932\nvalue = 1.094"] ;
195 -> 196 ;
197 [label="squared_error = 13.075\nsamples = 878\nvalue = 0.604"] ;
196 -> 197 ;
198 [label="squared_error = 296.365\nsamples = 54\nvalue = 9.074"] ;
196 -> 198 ;
199 [label="squared_error = 0.0\nsamples = 2928\nvalue = 0.0"] ;
195 -> 199 ;
200 [label="x[0] <= 78.5\nsquared_error = 26.128\nsamples = 880\nvalue = 0.881"] ;
186 -> 200 ;
201 [label="x[0] <= 77.5\nsquared_error = 84.18\nsamples = 227\nvalue = 2.291"] ;
200 -> 201 ;
202 [label="squared_error = 0.0\nsamples = 195\nvalue = 0.0"] ;
201 -> 202 ;
203 [label="x[3] <= 109.5\nsquared_error = 370.312\nsamples = 32\nvalue = 16.25"] ;
201 -> 203 ;
204 [label="squared_error = 481.867\nsamples = 18\nvalue = 24.722"] ;
203 -> 204 ;
205 [label="squared_error = 15.944\nsamples = 14\nvalue = 5.357"] ;
203 -> 205 ;
206 [label="x[0] <= 86.5\nsquared_error = 5.016\nsamples = 653\nvalue = 0.391"] ;
200 -> 206 ;
207 [label="x[0] <= 85.0\nsquared_error = 13.42\nsamples = 227\nvalue = 1.057"] ;
206 -> 207 ;
208 [label="squared_error = 0.379\nsamples = 195\nvalue = 0.077"] ;
207 -> 208 ;
209 [label="squared_error = 51.343\nsamples = 32\nvalue = 7.031"] ;
207 -> 209 ;
210 [label="x[0] <= 96.5\nsquared_error = 0.175\nsamples = 426\nvalue = 0.035"] ;
206 -> 210 ;
211 [label="squared_error = 0.0\nsamples = 326\nvalue = 0.0"] ;
210 -> 211 ;
212 [label="squared_error = 0.728\nsamples = 100\nvalue = 0.15"] ;
210 -> 212 ;
213 [label="x[3] <= 116.0\nsquared_error = 1965.991\nsamples = 81122\nvalue = 5.219"] ;
185 -> 213 ;
214 [label="x[3] <= 114.5\nsquared_error = 25228.353\nsamples = 1748\nvalue = 28.967"] ;
213 -> 214 ;
215 [label="x[0] <= 86.5\nsquared_error = 916.669\nsamples = 1301\nvalue = 5.327"] ;
214 -> 215 ;
216 [label="x[0] <= 85.0\nsquared_error = 1726.962\nsamples = 672\nvalue = 9.903"] ;
215 -> 216 ;
217 [label="squared_error = 237.791\nsamples = 626\nvalue = 3.634"] ;
216 -> 217 ;
218 [label="squared_error = 14179.301\nsamples = 46\nvalue = 95.217"] ;
216 -> 218 ;
219 [label="x[0] <= 94.5\nsquared_error = 4.698\nsamples = 629\nvalue = 0.437"] ;
215 -> 219 ;
220 [label="squared_error = 1.272\nsamples = 383\nvalue = 0.183"] ;
219 -> 220 ;
221 [label="squared_error = 9.773\nsamples = 246\nvalue = 0.833"] ;
219 -> 221 ;
222 [label="x[0] <= 86.5\nsquared_error = 89626.868\nsamples = 447\nvalue = 97.774"] ;
214 -> 222 ;
223 [label="x[0] <= 85.0\nsquared_error = 160113.196\nsamples = 231\nvalue = 173.42"] ;
222 -> 223 ;
224 [label="squared_error = 49361.454\nsamples = 216\nvalue = 97.847"] ;
223 -> 224 ;
225 [label="squared_error = 488415.556\nsamples = 15\nvalue = 1261.667"] ;
223 -> 225 ;
226 [label="x[0] <= 95.5\nsquared_error = 1581.322\nsamples = 216\nvalue = 16.875"] ;
222 -> 226 ;
227 [label="squared_error = 2190.111\nsamples = 147\nvalue = 22.891"] ;
226 -> 227 ;
228 [label="squared_error = 42.953\nsamples = 69\nvalue = 4.058"] ;
226 -> 228 ;
229 [label="x[0] <= 86.5\nsquared_error = 1441.006\nsamples = 79374\nvalue = 4.696"] ;
213 -> 229 ;
230 [label="x[0] <= 85.0\nsquared_error = 2403.835\nsamples = 41159\nvalue = 7.347"] ;
229 -> 230 ;
231 [label="x[0] <= 77.5\nsquared_error = 1455.512\nsamples = 38220\nvalue = 5.398"] ;
230 -> 231 ;
232 [label="squared_error = 36.398\nsamples = 17622\nvalue = 0.715"] ;
231 -> 232 ;
233 [label="squared_error = 2634.791\nsamples = 20598\nvalue = 9.403"] ;
231 -> 233 ;
234 [label="x[2] <= 9.0\nsquared_error = 14044.372\nsamples = 2939\nvalue = 32.693"] ;
230 -> 234 ;
235 [label="squared_error = 1395.612\nsamples = 1345\nvalue = 10.669"] ;
234 -> 235 ;
236 [label="squared_error = 23962.627\nsamples = 1594\nvalue = 51.277"] ;
234 -> 236 ;
237 [label="x[0] <= 94.5\nsquared_error = 388.288\nsamples = 38215\nvalue = 1.841"] ;
229 -> 237 ;
238 [label="x[2] <= 9.0\nsquared_error = 48.901\nsamples = 23506\nvalue = 0.797"] ;
237 -> 238 ;
239 [label="squared_error = 2.381\nsamples = 10638\nvalue = 0.166"] ;
238 -> 239 ;
240 [label="squared_error = 86.758\nsamples = 12868\nvalue = 1.318"] ;
238 -> 240 ;
241 [label="x[0] <= 95.5\nsquared_error = 926.12\nsamples = 14709\nvalue = 3.511"] ;
237 -> 241 ;
242 [label="squared_error = 4163.246\nsamples = 2973\nvalue = 13.681"] ;
241 -> 242 ;
243 [label="squared_error = 73.24\nsamples = 11736\nvalue = 0.935"] ;
241 -> 243 ;
244 [label="x[0] <= 100.5\nsquared_error = 56310.037\nsamples = 294170\nvalue = 11.257"] ;
0 -> 244 [labeldistance=2.5, labelangle=-45, headlabel="False"] ;
245 [label="x[3] <= 213.5\nsquared_error = 2540442.848\nsamples = 4356\nvalue = 371.948"] ;
244 -> 245 ;
246 [label="x[3] <= 110.5\nsquared_error = 684006.837\nsamples = 2754\nvalue = 179.414"] ;
245 -> 246 ;
247 [label="x[3] <= 109.5\nsquared_error = 65.596\nsamples = 1354\nvalue = 1.381"] ;
246 -> 247 ;
248 [label="x[3] <= 104.0\nsquared_error = 16.383\nsamples = 1335\nvalue = 0.764"] ;
247 -> 248 ;
249 [label="x[3] <= 32.5\nsquared_error = 1.583\nsamples = 1266\nvalue = 0.19"] ;
248 -> 249 ;
250 [label="x[3] <= 31.5\nsquared_error = 5.341\nsamples = 327\nvalue = 0.627"] ;
249 -> 250 ;
251 [label="squared_error = 1.529\nsamples = 310\nvalue = 0.29"] ;
250 -> 251 ;
252 [label="squared_error = 35.121\nsamples = 17\nvalue = 6.765"] ;
250 -> 252 ;
253 [label="x[3] <= 96.5\nsquared_error = 0.185\nsamples = 939\nvalue = 0.037"] ;
249 -> 253 ;
254 [label="squared_error = 0.114\nsamples = 873\nvalue = 0.023"] ;
253 -> 254 ;
255 [label="squared_error = 1.085\nsamples = 66\nvalue = 0.227"] ;
253 -> 255 ;
256 [label="x[2] <= 9.0\nsquared_error = 170.762\nsamples = 69\nvalue = 11.304"] ;
248 -> 256 ;
257 [label="x[3] <= 105.5\nsquared_error = 21.875\nsamples = 32\nvalue = 3.75"] ;
256 -> 257 ;
258 [label="squared_error = 18.75\nsamples = 8\nvalue = 10.0"] ;
257 -> 258 ;
259 [label="squared_error = 5.556\nsamples = 24\nvalue = 1.667"] ;
257 -> 259 ;
260 [label="x[3] <= 108.0\nsquared_error = 207.487\nsamples = 37\nvalue = 17.838"] ;
256 -> 260 ;
261 [label="squared_error = 208.916\nsamples = 27\nvalue = 21.481"] ;
260 -> 261 ;
262 [label="squared_error = 71.0\nsamples = 10\nvalue = 8.0"] ;
260 -> 262 ;
263 [label="x[2] <= 9.0\nsquared_error = 1617.036\nsamples = 19\nvalue = 44.737"] ;
247 -> 263 ;
264 [label="x[2] <= 7.5\nsquared_error = 93.75\nsamples = 8\nvalue = 17.5"] ;
263 -> 264 ;
265 [label="x[2] <= 4.5\nsquared_error = 47.222\nsamples = 6\nvalue = 13.333"] ;
264 -> 265 ;
266 [label="squared_error = 25.0\nsamples = 2\nvalue = 10.0"] ;
265 -> 266 ;
267 [label="squared_error = 50.0\nsamples = 4\nvalue = 15.0"] ;
265 -> 267 ;
268 [label="x[1] <= 2.5\nsquared_error = 25.0\nsamples = 2\nvalue = 30.0"] ;
264 -> 268 ;
269 [label="squared_error = 0.0\nsamples = 1\nvalue = 35.0"] ;
268 -> 269 ;
270 [label="squared_error = 0.0\nsamples = 1\nvalue = 25.0"] ;
268 -> 270 ;
271 [label="x[2] <= 13.5\nsquared_error = 1792.975\nsamples = 11\nvalue = 64.545"] ;
263 -> 271 ;
272 [label="x[2] <= 12.5\nsquared_error = 447.959\nsamples = 7\nvalue = 93.571"] ;
271 -> 272 ;
273 [label="squared_error = 188.889\nsamples = 6\nvalue = 86.667"] ;
272 -> 273 ;
274 [label="squared_error = 0.0\nsamples = 1\nvalue = 135.0"] ;
272 -> 274 ;
275 [label="x[2] <= 14.5\nsquared_error = 92.188\nsamples = 4\nvalue = 13.75"] ;
271 -> 275 ;
276 [label="squared_error = 100.0\nsamples = 2\nvalue = 20.0"] ;
275 -> 276 ;
277 [label="squared_error = 6.25\nsamples = 2\nvalue = 7.5"] ;
275 -> 277 ;
278 [label="x[2] <= 9.0\nsquared_error = 1285174.648\nsamples = 1400\nvalue = 351.596"] ;
246 -> 278 ;
279 [label="x[3] <= 116.0\nsquared_error = 189783.045\nsamples = 654\nvalue = 142.301"] ;
278 -> 279 ;
280 [label="x[3] <= 114.5\nsquared_error = 949496.189\nsamples = 33\nvalue = 748.485"] ;
279 -> 280 ;
281 [label="x[3] <= 111.5\nsquared_error = 23193.384\nsamples = 23\nvalue = 148.913"] ;
280 -> 281 ;
282 [label="squared_error = 18979.688\nsamples = 8\nvalue = 311.25"] ;
281 -> 282 ;
283 [label="squared_error = 3889.556\nsamples = 15\nvalue = 62.333"] ;
281 -> 283 ;
284 [label="x[2] <= 4.5\nsquared_error = 351491.25\nsamples = 10\nvalue = 2127.5"] ;
280 -> 284 ;
285 [label="squared_error = 122154.688\nsamples = 4\nvalue = 1496.25"] ;
284 -> 285 ;
286 [label="squared_error = 61630.556\nsamples = 6\nvalue = 2548.333"] ;
284 -> 286 ;
287 [label="x[3] <= 187.5\nsquared_error = 128847.375\nsamples = 621\nvalue = 110.089"] ;
279 -> 287 ;
288 [label="x[3] <= 144.5\nsquared_error = 167799.12\nsamples = 463\nvalue = 145.583"] ;
287 -> 288 ;
289 [label="squared_error = 24942.505\nsamples = 186\nvalue = 63.978"] ;
288 -> 289 ;
290 [label="squared_error = 256250.308\nsamples = 277\nvalue = 200.379"] ;
288 -> 290 ;
291 [label="x[3] <= 203.5\nsquared_error = 193.463\nsamples = 158\nvalue = 6.076"] ;
287 -> 291 ;
292 [label="squared_error = 306.205\nsamples = 89\nvalue = 9.494"] ;
291 -> 292 ;
293 [label="squared_error = 13.527\nsamples = 69\nvalue = 1.667"] ;
291 -> 293 ;
294 [label="x[3] <= 116.0\nsquared_error = 2173409.042\nsamples = 746\nvalue = 535.08"] ;
278 -> 294 ;
295 [label="x[3] <= 114.5\nsquared_error = 5883047.599\nsamples = 34\nvalue = 1669.559"] ;
294 -> 295 ;
296 [label="x[3] <= 111.5\nsquared_error = 247712.0\nsamples = 25\nvalue = 406.0"] ;
295 -> 296 ;
297 [label="squared_error = 229998.438\nsamples = 8\nvalue = 788.75"] ;
296 -> 297 ;
298 [label="squared_error = 154665.398\nsamples = 17\nvalue = 225.882"] ;
296 -> 298 ;
299 [label="x[2] <= 14.0\nsquared_error = 4782513.58\nsamples = 9\nvalue = 5179.444"] ;
295 -> 299 ;
300 [label="squared_error = 845706.122\nsamples = 7\nvalue = 6262.857"] ;
299 -> 300 ;
301 [label="squared_error = 74256.25\nsamples = 2\nvalue = 1387.5"] ;
299 -> 301 ;
302 [label="x[3] <= 187.5\nsquared_error = 1931868.667\nsamples = 712\nvalue = 480.906"] ;
294 -> 302 ;
303 [label="x[3] <= 144.5\nsquared_error = 2490455.135\nsamples = 524\nvalue = 610.506"] ;
302 -> 303 ;
304 [label="squared_error = 380131.271\nsamples = 225\nvalue = 266.133"] ;
303 -> 304 ;
305 [label="squared_error = 3922094.609\nsamples = 299\nvalue = 869.649"] ;
303 -> 305 ;
306 [label="x[3] <= 197.5\nsquared_error = 197659.207\nsamples = 188\nvalue = 119.681"] ;
302 -> 306 ;
307 [label="squared_error = 551109.472\nsamples = 60\nvalue = 247.167"] ;
306 -> 307 ;
308 [label="squared_error = 20789.838\nsamples = 128\nvalue = 59.922"] ;
306 -> 308 ;
309 [label="x[3] <= 251.5\nsquared_error = 5558566.237\nsamples = 1602\nvalue = 702.934"] ;
245 -> 309 ;
310 [label="x[3] <= 247.5\nsquared_error = 8193254.677\nsamples = 532\nvalue = 1332.904"] ;
309 -> 310 ;
311 [label="x[2] <= 7.5\nsquared_error = 6029292.634\nsamples = 467\nvalue = 1018.544"] ;
310 -> 311 ;
312 [label="x[3] <= 233.5\nsquared_error = 754492.191\nsamples = 175\nvalue = 433.457"] ;
311 -> 312 ;
313 [label="x[3] <= 232.5\nsquared_error = 1105159.008\nsamples = 108\nvalue = 565.972"] ;
312 -> 313 ;
314 [label="squared_error = 510258.632\nsamples = 101\nvalue = 363.267"] ;
313 -> 314 ;
315 [label="squared_error = 541745.918\nsamples = 7\nvalue = 3490.714"] ;
313 -> 315 ;
316 [label="x[3] <= 238.5\nsquared_error = 115304.455\nsamples = 67\nvalue = 219.851"] ;
312 -> 316 ;
317 [label="squared_error = 940.972\nsamples = 24\nvalue = 29.167"] ;
316 -> 317 ;
318 [label="squared_error = 147514.062\nsamples = 43\nvalue = 326.279"] ;
316 -> 318 ;
319 [label="x[3] <= 233.5\nsquared_error = 8862442.246\nsamples = 292\nvalue = 1369.195"] ;
311 -> 319 ;
320 [label="x[3] <= 232.5\nsquared_error = 11994049.326\nsamples = 184\nvalue = 1779.266"] ;
319 -> 320 ;
321 [label="squared_error = 10716351.148\nsamples = 175\nvalue = 1536.771"] ;
320 -> 321 ;
322 [label="squared_error = 13461869.136\nsamples = 9\nvalue = 6494.444"] ;
320 -> 322 ;
323 [label="x[3] <= 240.0\nsquared_error = 2752522.377\nsamples = 108\nvalue = 670.556"] ;
319 -> 323 ;
324 [label="squared_error = 30654.171\nsamples = 51\nvalue = 115.49"] ;
323 -> 324 ;
325 [label="squared_error = 4665563.173\nsamples = 57\nvalue = 1167.193"] ;
323 -> 325 ;
326 [label="x[2] <= 9.0\nsquared_error = 17929407.479\nsamples = 65\nvalue = 3591.462"] ;
310 -> 326 ;
327 [label="x[3] <= 250.5\nsquared_error = 534523.889\nsamples = 30\nvalue = 753.333"] ;
326 -> 327 ;
328 [label="x[3] <= 248.5\nsquared_error = 118512.76\nsamples = 23\nvalue = 422.609"] ;
327 -> 328 ;
329 [label="squared_error = 9099.609\nsamples = 8\nvalue = 173.125"] ;
328 -> 329 ;
330 [label="squared_error = 125966.222\nsamples = 15\nvalue = 555.667"] ;
328 -> 330 ;
331 [label="x[2] <= 7.5\nsquared_error = 361185.714\nsamples = 7\nvalue = 1840.0"] ;
327 -> 331 ;
332 [label="squared_error = 90239.583\nsamples = 6\nvalue = 1622.5"] ;
331 -> 332 ;
333 [label="squared_error = 0.0\nsamples = 1\nvalue = 3145.0"] ;
331 -> 333 ;
334 [label="x[3] <= 248.5\nsquared_error = 20017107.837\nsamples = 35\nvalue = 6024.143"] ;
326 -> 334 ;
335 [label="x[2] <= 11.5\nsquared_error = 27303472.222\nsamples = 9\nvalue = 8620.0"] ;
334 -> 335 ;
336 [label="squared_error = 286650.0\nsamples = 3\nvalue = 1975.0"] ;
335 -> 336 ;
337 [label="squared_error = 7694864.583\nsamples = 6\nvalue = 11942.5"] ;
335 -> 337 ;
338 [label="x[3] <= 250.5\nsquared_error = 14354935.244\nsamples = 26\nvalue = 5125.577"] ;
334 -> 338 ;
339 [label="squared_error = 7642420.415\nsamples = 17\nvalue = 3293.235"] ;
338 -> 339 ;
340 [label="squared_error = 8713088.889\nsamples = 9\nvalue = 8586.667"] ;
338 -> 340 ;
341 [label="x[3] <= 293.5\nsquared_error = 3953184.335\nsamples = 1070\nvalue = 389.715"] ;
309 -> 341 ;
342 [label="x[3] <= 255.5\nsquared_error = 187492.721\nsamples = 619\nvalue = 93.619"] ;
341 -> 342 ;
343 [label="x[3] <= 254.5\nsquared_error = 1467146.196\nsamples = 63\nvalue = 586.349"] ;
342 -> 343 ;
344 [label="x[3] <= 253.5\nsquared_error = 90941.67\nsamples = 49\nvalue = 130.408"] ;
343 -> 344 ;
345 [label="squared_error = 128.627\nsamples = 36\nvalue = 8.611"] ;
344 -> 345 ;
346 [label="squared_error = 187583.136\nsamples = 13\nvalue = 467.692"] ;
344 -> 346 ;
347 [label="x[2] <= 9.0\nsquared_error = 3009716.837\nsamples = 14\nvalue = 2182.143"] ;
343 -> 347 ;
348 [label="squared_error = 106628.472\nsamples = 6\nvalue = 700.833"] ;
347 -> 348 ;
349 [label="squared_error = 2307043.359\nsamples = 8\nvalue = 3293.125"] ;
347 -> 349 ;
350 [label="x[3] <= 291.5\nsquared_error = 11869.297\nsamples = 556\nvalue = 37.788"] ;
342 -> 350 ;
351 [label="x[3] <= 258.5\nsquared_error = 9893.508\nsamples = 540\nvalue = 31.463"] ;
350 -> 351 ;
352 [label="squared_error = 88669.144\nsamples = 29\nvalue = 188.448"] ;
351 -> 352 ;
353 [label="squared_error = 3944.897\nsamples = 511\nvalue = 22.554"] ;
351 -> 353 ;
354 [label="x[2] <= 9.0\nsquared_error = 31635.938\nsamples = 16\nvalue = 251.25"] ;
350 -> 354 ;
355 [label="squared_error = 414.583\nsamples = 6\nvalue = 37.5"] ;
354 -> 355 ;
356 [label="squared_error = 6507.25\nsamples = 10\nvalue = 379.5"] ;
354 -> 356 ;
357 [label="x[3] <= 294.5\nsquared_error = 8836129.48\nsamples = 451\nvalue = 796.109"] ;
341 -> 357 ;
358 [label="x[2] <= 7.5\nsquared_error = 50742231.934\nsamples = 16\nvalue = 8090.938"] ;
357 -> 358 ;
359 [label="x[2] <= 3.5\nsquared_error = 360210.204\nsamples = 7\nvalue = 3544.286"] ;
358 -> 359 ;
360 [label="squared_error = 6.25\nsamples = 2\nvalue = 2672.5"] ;
359 -> 360 ;
361 [label="squared_error = 78686.0\nsamples = 5\nvalue = 3893.0"] ;
359 -> 361 ;
362 [label="x[2] <= 13.5\nsquared_error = 61344683.951\nsamples = 9\nvalue = 11627.222"] ;
358 -> 362 ;
363 [label="squared_error = 28017475.0\nsamples = 6\nvalue = 16235.0"] ;
362 -> 363 ;
364 [label="squared_error = 609405.556\nsamples = 3\nvalue = 2411.667"] ;
362 -> 364 ;
365 [label="x[3] <= 298.5\nsquared_error = 5265446.394\nsamples = 435\nvalue = 527.793"] ;
357 -> 365 ;
366 [label="x[3] <= 297.5\nsquared_error = 26289669.208\nsamples = 72\nvalue = 2604.236"] ;
365 -> 366 ;
367 [label="squared_error = 42686.206\nsamples = 52\nvalue = 154.423"] ;
366 -> 367 ;
368 [label="squared_error = 38356999.688\nsamples = 20\nvalue = 8973.75"] ;
366 -> 368 ;
369 [label="x[3] <= 316.5\nsquared_error = 70530.39\nsamples = 363\nvalue = 115.937"] ;
365 -> 369 ;
370 [label="squared_error = 9874.341\nsamples = 229\nvalue = 49.934"] ;
369 -> 370 ;
371 [label="squared_error = 154021.525\nsamples = 134\nvalue = 228.731"] ;
369 -> 371 ;
372 [label="x[0] <= 165.5\nsquared_error = 16987.893\nsamples = 289814\nvalue = 5.835"] ;
244 -> 372 ;
373 [label="x[0] <= 126.5\nsquared_error = 3748.321\nsamples = 259488\nvalue = 3.655"] ;
372 -> 373 ;
374 [label="x[0] <= 125.5\nsquared_error = 9225.27\nsamples = 99302\nvalue = 8.055"] ;
373 -> 374 ;
375 [label="x[0] <= 122.5\nsquared_error = 6713.009\nsamples = 94940\nvalue = 6.023"] ;
374 -> 375 ;
376 [label="x[3] <= 110.5\nsquared_error = 3048.579\nsamples = 82079\nvalue = 3.781"] ;
375 -> 376 ;
377 [label="x[3] <= 19.5\nsquared_error = 6.98\nsamples = 25052\nvalue = 0.243"] ;
376 -> 377 ;
378 [label="squared_error = 27.94\nsamples = 2827\nvalue = 1.045"] ;
377 -> 378 ;
379 [label="squared_error = 4.222\nsamples = 22225\nvalue = 0.141"] ;
377 -> 379 ;
380 [label="x[0] <= 111.0\nsquared_error = 4376.837\nsamples = 57027\nvalue = 5.336"] ;
376 -> 380 ;
381 [label="squared_error = 8715.662\nsamples = 27054\nvalue = 8.523"] ;
380 -> 381 ;
382 [label="squared_error = 443.113\nsamples = 29973\nvalue = 2.459"] ;
380 -> 382 ;
383 [label="x[0] <= 123.5\nsquared_error = 29862.726\nsamples = 12861\nvalue = 20.328"] ;
375 -> 383 ;
384 [label="x[3] <= 109.5\nsquared_error = 87711.37\nsamples = 4259\nvalue = 60.836"] ;
383 -> 384 ;
385 [label="squared_error = 4.451\nsamples = 1313\nvalue = 0.442"] ;
384 -> 385 ;
386 [label="squared_error = 124451.23\nsamples = 2946\nvalue = 87.753"] ;
384 -> 386 ;
387 [label="x[3] <= 144.5\nsquared_error = 6.18\nsamples = 8602\nvalue = 0.272"] ;
383 -> 387 ;
388 [label="squared_error = 0.183\nsamples = 3536\nvalue = 0.034"] ;
387 -> 388 ;
389 [label="squared_error = 10.299\nsamples = 5066\nvalue = 0.438"] ;
387 -> 389 ;
390 [label="x[3] <= 109.5\nsquared_error = 61858.305\nsamples = 4362\nvalue = 52.294"] ;
374 -> 390 ;
391 [label="x[3] <= 19.5\nsquared_error = 57.992\nsamples = 1320\nvalue = 1.527"] ;
390 -> 391 ;
392 [label="x[3] <= 18.5\nsquared_error = 336.44\nsamples = 150\nvalue = 8.4"] ;
391 -> 392 ;
393 [label="squared_error = 108.074\nsamples = 132\nvalue = 3.598"] ;
392 -> 393 ;
394 [label="squared_error = 602.238\nsamples = 18\nvalue = 43.611"] ;
392 -> 394 ;
395 [label="x[3] <= 108.0\nsquared_error = 15.46\nsamples = 1170\nvalue = 0.645"] ;
391 -> 395 ;
396 [label="squared_error = 2.855\nsamples = 1155\nvalue = 0.364"] ;
395 -> 396 ;
397 [label="squared_error = 509.556\nsamples = 15\nvalue = 22.333"] ;
395 -> 397 ;
398 [label="x[2] <= 9.0\nsquared_error = 87071.369\nsamples = 3042\nvalue = 74.323"] ;
390 -> 398 ;
399 [label="x[3] <= 116.0\nsquared_error = 17498.706\nsamples = 1388\nvalue = 35.656"] ;
398 -> 399 ;
400 [label="squared_error = 45922.9\nsamples = 37\nvalue = 174.73"] ;
399 -> 400 ;
401 [label="squared_error = 16176.031\nsamples = 1351\nvalue = 31.847"] ;
399 -> 401 ;
402 [label="x[2] <= 12.5\nsquared_error = 143147.587\nsamples = 1654\nvalue = 106.771"] ;
398 -> 402 ;
403 [label="squared_error = 241695.748\nsamples = 795\nvalue = 148.113"] ;
402 -> 403 ;
404 [label="squared_error = 48896.033\nsamples = 859\nvalue = 68.51"] ;
402 -> 404 ;
405 [label="x[3] <= 144.5\nsquared_error = 333.628\nsamples = 160186\nvalue = 0.928"] ;
373 -> 405 ;
406 [label="x[3] <= 110.5\nsquared_error = 4.178\nsamples = 66589\nvalue = 0.179"] ;
405 -> 406 ;
407 [label="x[3] <= 19.5\nsquared_error = 0.357\nsamples = 48894\nvalue = 0.034"] ;
406 -> 407 ;
408 [label="x[3] <= 18.5\nsquared_error = 1.592\nsamples = 5517\nvalue = 0.145"] ;
407 -> 408 ;
409 [label="squared_error = 0.904\nsamples = 4909\nvalue = 0.085"] ;
408 -> 409 ;
410 [label="squared_error = 6.877\nsamples = 608\nvalue = 0.633"] ;
408 -> 410 ;
411 [label="x[2] <= 9.0\nsquared_error = 0.198\nsamples = 43377\nvalue = 0.02"] ;
407 -> 411 ;
412 [label="squared_error = 0.028\nsamples = 19792\nvalue = 0.005"] ;
411 -> 412 ;
413 [label="squared_error = 0.341\nsamples = 23585\nvalue = 0.032"] ;
411 -> 413 ;
414 [label="x[3] <= 116.0\nsquared_error = 14.519\nsamples = 17695\nvalue = 0.578"] ;
406 -> 414 ;
415 [label="x[3] <= 114.5\nsquared_error = 53.282\nsamples = 2429\nvalue = 1.809"] ;
414 -> 415 ;
416 [label="squared_error = 16.327\nsamples = 1818\nvalue = 0.534"] ;
415 -> 416 ;
417 [label="squared_error = 143.987\nsamples = 611\nvalue = 5.606"] ;
415 -> 417 ;
418 [label="x[3] <= 135.5\nsquared_error = 8.071\nsamples = 15266\nvalue = 0.383"] ;
414 -> 418 ;
419 [label="squared_error = 11.64\nsamples = 10373\nvalue = 0.532"] ;
418 -> 419 ;
420 [label="squared_error = 0.358\nsamples = 4893\nvalue = 0.066"] ;
418 -> 420 ;
421 [label="x[3] <= 145.5\nsquared_error = 567.329\nsamples = 93597\nvalue = 1.461"] ;
405 -> 421 ;
422 [label="x[0] <= 142.5\nsquared_error = 3349.539\nsamples = 621\nvalue = 28.019"] ;
421 -> 422 ;
423 [label="x[2] <= 6.0\nsquared_error = 6975.705\nsamples = 234\nvalue = 51.581"] ;
422 -> 423 ;
424 [label="squared_error = 352.103\nsamples = 71\nvalue = 15.845"] ;
423 -> 424 ;
425 [label="squared_error = 9062.261\nsamples = 163\nvalue = 67.147"] ;
423 -> 425 ;
426 [label="x[0] <= 151.5\nsquared_error = 618.326\nsamples = 387\nvalue = 13.773"] ;
422 -> 426 ;
427 [label="squared_error = 1171.635\nsamples = 156\nvalue = 22.5"] ;
426 -> 427 ;
428 [label="squared_error = 158.487\nsamples = 231\nvalue = 7.879"] ;
426 -> 428 ;
429 [label="x[3] <= 255.5\nsquared_error = 544.004\nsamples = 92976\nvalue = 1.284"] ;
421 -> 429 ;
430 [label="x[3] <= 196.0\nsquared_error = 893.918\nsamples = 56072\nvalue = 1.901"] ;
429 -> 430 ;
431 [label="squared_error = 12.035\nsamples = 25047\nvalue = 0.556"] ;
430 -> 431 ;
432 [label="squared_error = 1603.234\nsamples = 31025\nvalue = 2.988"] ;
430 -> 432 ;
433 [label="x[3] <= 293.5\nsquared_error = 10.884\nsamples = 36904\nvalue = 0.345"] ;
429 -> 433 ;
434 [label="squared_error = 0.533\nsamples = 20259\nvalue = 0.064"] ;
433 -> 434 ;
435 [label="squared_error = 23.27\nsamples = 16645\nvalue = 0.688"] ;
433 -> 435 ;
436 [label="x[0] <= 166.5\nsquared_error = 129885.266\nsamples = 30326\nvalue = 24.488"] ;
372 -> 436 ;
437 [label="x[3] <= 218.5\nsquared_error = 905940.881\nsamples = 4226\nvalue = 162.861"] ;
436 -> 437 ;
438 [label="x[3] <= 113.0\nsquared_error = 75229.501\nsamples = 2711\nvalue = 55.214"] ;
437 -> 438 ;
439 [label="x[3] <= 110.5\nsquared_error = 78.065\nsamples = 1339\nvalue = 1.236"] ;
438 -> 439 ;
440 [label="x[3] <= 109.5\nsquared_error = 3.012\nsamples = 1307\nvalue = 0.325"] ;
439 -> 440 ;
441 [label="squared_error = 1.358\nsamples = 1294\nvalue = 0.228"] ;
440 -> 441 ;
442 [label="squared_error = 73.077\nsamples = 13\nvalue = 10.0"] ;
440 -> 442 ;
443 [label="x[3] <= 111.5\nsquared_error = 1725.684\nsamples = 32\nvalue = 38.438"] ;
439 -> 443 ;
444 [label="squared_error = 1488.688\nsamples = 20\nvalue = 60.25"] ;
443 -> 444 ;
445 [label="squared_error = 6.076\nsamples = 12\nvalue = 2.083"] ;
443 -> 445 ;
446 [label="x[2] <= 9.0\nsquared_error = 142954.674\nsamples = 1372\nvalue = 107.894"] ;
438 -> 446 ;
447 [label="x[3] <= 116.0\nsquared_error = 27383.819\nsamples = 625\nvalue = 43.808"] ;
446 -> 447 ;
448 [label="squared_error = 66519.434\nsamples = 16\nvalue = 264.062"] ;
447 -> 448 ;
449 [label="squared_error = 25047.604\nsamples = 609\nvalue = 38.021"] ;
447 -> 449 ;
450 [label="x[3] <= 116.0\nsquared_error = 233339.278\nsamples = 747\nvalue = 161.513"] ;
446 -> 450 ;
451 [label="squared_error = 227268.006\nsamples = 19\nvalue = 481.316"] ;
450 -> 451 ;
452 [label="squared_error = 230758.828\nsamples = 728\nvalue = 153.166"] ;
450 -> 452 ;
453 [label="x[3] <= 229.5\nsquared_error = 2334607.022\nsamples = 1515\nvalue = 355.488"] ;
437 -> 453 ;
454 [label="x[3] <= 228.5\nsquared_error = 7165994.793\nsamples = 157\nvalue = 981.943"] ;
453 -> 454 ;
455 [label="x[3] <= 220.5\nsquared_error = 257050.786\nsamples = 140\nvalue = 211.0"] ;
454 -> 455 ;
456 [label="squared_error = 586342.188\nsamples = 36\nvalue = 762.083"] ;
455 -> 456 ;
457 [label="squared_error = 1551.625\nsamples = 104\nvalue = 20.24"] ;
455 -> 457 ;
458 [label="x[2] <= 7.5\nsquared_error = 18859477.163\nsamples = 17\nvalue = 7330.882"] ;
454 -> 458 ;
459 [label="squared_error = 667005.556\nsamples = 6\nvalue = 3111.667"] ;
458 -> 459 ;
460 [label="squared_error = 13776183.471\nsamples = 11\nvalue = 9632.273"] ;
458 -> 460 ;
461 [label="x[3] <= 293.5\nsquared_error = 1725428.098\nsamples = 1358\nvalue = 283.063"] ;
453 -> 461 ;
462 [label="x[3] <= 255.5\nsquared_error = 370148.498\nsamples = 903\nvalue = 172.735"] ;
461 -> 462 ;
463 [label="squared_error = 807191.358\nsamples = 369\nvalue = 413.659"] ;
462 -> 463 ;
464 [label="squared_error = 322.115\nsamples = 534\nvalue = 6.255"] ;
462 -> 464 ;
465 [label="x[3] <= 294.5\nsquared_error = 4343036.681\nsamples = 455\nvalue = 502.022"] ;
461 -> 465 ;
466 [label="squared_error = 24040272.667\nsamples = 15\nvalue = 7802.0"] ;
465 -> 466 ;
467 [label="squared_error = 1792913.657\nsamples = 440\nvalue = 253.159"] ;
465 -> 467 ;
468 [label="x[0] <= 168.5\nsquared_error = 627.494\nsamples = 26100\nvalue = 2.083"] ;
436 -> 468 ;
469 [label="x[0] <= 167.5\nsquared_error = 687.707\nsamples = 8689\nvalue = 4.296"] ;
468 -> 469 ;
470 [label="x[3] <= 174.5\nsquared_error = 54.717\nsamples = 4364\nvalue = 0.888"] ;
469 -> 470 ;
471 [label="x[3] <= 125.0\nsquared_error = 3.864\nsamples = 2213\nvalue = 0.183"] ;
470 -> 471 ;
472 [label="squared_error = 0.129\nsamples = 1538\nvalue = 0.026"] ;
471 -> 472 ;
473 [label="squared_error = 12.189\nsamples = 675\nvalue = 0.541"] ;
471 -> 473 ;
474 [label="x[3] <= 203.5\nsquared_error = 105.998\nsamples = 2151\nvalue = 1.613"] ;
470 -> 474 ;
475 [label="squared_error = 509.096\nsamples = 390\nvalue = 5.513"] ;
474 -> 475 ;
476 [label="squared_error = 12.612\nsamples = 1761\nvalue = 0.75"] ;
474 -> 476 ;
477 [label="x[3] <= 144.5\nsquared_error = 1302.866\nsamples = 4325\nvalue = 7.734"] ;
469 -> 477 ;
478 [label="x[3] <= 113.0\nsquared_error = 81.473\nsamples = 1809\nvalue = 1.73"] ;
477 -> 478 ;
479 [label="squared_error = 1.022\nsamples = 1338\nvalue = 0.157"] ;
478 -> 479 ;
480 [label="squared_error = 283.009\nsamples = 471\nvalue = 6.2"] ;
478 -> 480 ;
481 [label="x[3] <= 145.5\nsquared_error = 2136.493\nsamples = 2516\nvalue = 12.051"] ;
477 -> 481 ;
482 [label="squared_error = 22401.384\nsamples = 17\nvalue = 159.706"] ;
481 -> 482 ;
483 [label="squared_error = 1849.315\nsamples = 2499\nvalue = 11.046"] ;
481 -> 483 ;
484 [label="x[3] <= 63.5\nsquared_error = 593.783\nsamples = 17411\nvalue = 0.979"] ;
468 -> 484 ;
485 [label="x[3] <= 62.5\nsquared_error = 3519.804\nsamples = 2891\nvalue = 4.123"] ;
484 -> 485 ;
486 [label="x[3] <= 59.5\nsquared_error = 2.741\nsamples = 2823\nvalue = 0.198"] ;
485 -> 486 ;
487 [label="squared_error = 1.493\nsamples = 2695\nvalue = 0.139"] ;
486 -> 487 ;
488 [label="squared_error = 27.403\nsamples = 128\nvalue = 1.445"] ;
486 -> 488 ;
489 [label="x[0] <= 173.5\nsquared_error = 122342.085\nsamples = 68\nvalue = 167.059"] ;
485 -> 489 ;
490 [label="squared_error = 9.345\nsamples = 53\nvalue = 1.226"] ;
489 -> 490 ;
491 [label="squared_error = 114089.333\nsamples = 15\nvalue = 753.0"] ;
489 -> 491 ;
492 [label="x[2] <= 7.5\nsquared_error = 8.839\nsamples = 14520\nvalue = 0.353"] ;
484 -> 492 ;
493 [label="x[3] <= 145.5\nsquared_error = 0.992\nsamples = 5253\nvalue = 0.086"] ;
492 -> 493 ;
494 [label="squared_error = 2.606\nsamples = 1615\nvalue = 0.161"] ;
493 -> 494 ;
495 [label="squared_error = 0.272\nsamples = 3638\nvalue = 0.052"] ;
493 -> 495 ;
496 [label="x[3] <= 126.5\nsquared_error = 13.223\nsamples = 9267\nvalue = 0.505"] ;
492 -> 496 ;
497 [label="squared_error = 1.018\nsamples = 2106\nvalue = 0.121"] ;
496 -> 497 ;
498 [label="squared_error = 16.756\nsamples = 7161\nvalue = 0.618"] ;
496 -> 498 ;
}